net
{
	propagationenginegenerator1791944048146838126L = "edu.ucla.belief.approx.BeliefPropagationSettings@375aa31c";
	recoveryenginegenerator6944530267470113528l = "edu.ucla.util.SettingsImpl@141d0aa0";
	node_size = (130.0 55.0);
	huginenginegenerator3061656038650325130L = "edu.ucla.belief.inference.JoinTreeSettings@66867263";
}

node PaymentHistory
{
	states = ("Excellent" "Acceptable" "Unacceptable" );
	position = (549 -183);
	DSLxEXTRA_DEFINITIONxMANDATORY = "false";
	diagnosistype = "AUXILIARY";
	label = "Payment History";
	DSLxPOSITIONxWIDTH = "93";
	DSLxEXTRA_DEFINITIONxDIAGNOSIS_TYPE = "AUXILIARY";
	excludepolicy = "include whole CPT";
	DSLxTYPE = "CPT";
	DSLxPOSITIONxHEIGHT = "30";
	DSLxEXTRA_DEFINITIONxRANKED = "false";
	ismapvariable = "false";
	ID = "PaymentHistory";
}
node Reliability
{
	states = ("Reliable" "Unreliable" );
	position = (616 -424);
	DSLxEXTRA_DEFINITIONxMANDATORY = "false";
	diagnosistype = "AUXILIARY";
	label = "Reliability";
	DSLxPOSITIONxWIDTH = "70";
	DSLxEXTRA_DEFINITIONxDIAGNOSIS_TYPE = "AUXILIARY";
	excludepolicy = "include whole CPT";
	DSLxTYPE = "CPT";
	DSLxPOSITIONxHEIGHT = "30";
	DSLxEXTRA_DEFINITIONxRANKED = "false";
	ismapvariable = "false";
	ID = "Reliability";
}
node Income
{
	states = ("High" "Medium" "Low" );
	position = (5 -183);
	DSLxEXTRA_DEFINITIONxMANDATORY = "false";
	diagnosistype = "AUXILIARY";
	label = "Income";
	DSLxPOSITIONxWIDTH = "83";
	DSLxEXTRA_DEFINITIONxDIAGNOSIS_TYPE = "AUXILIARY";
	excludepolicy = "include whole CPT";
	DSLxTYPE = "CPT";
	DSLxPOSITIONxHEIGHT = "30";
	DSLxEXTRA_DEFINITIONxRANKED = "false";
	ismapvariable = "false";
	ID = "Profession";
}
node Assets
{
	states = ("High" "Medium" "Low" );
	position = (154 -305);
	DSLxEXTRA_DEFINITIONxMANDATORY = "false";
	diagnosistype = "AUXILIARY";
	label = "Assets";
	DSLxPOSITIONxWIDTH = "70";
	DSLxEXTRA_DEFINITIONxDIAGNOSIS_TYPE = "AUXILIARY";
	excludepolicy = "include whole CPT";
	DSLxTYPE = "CPT";
	DSLxPOSITIONxHEIGHT = "30";
	DSLxEXTRA_DEFINITIONxRANKED = "false";
	ismapvariable = "false";
	ID = "Worth";
}
node Age
{
	states = ("Between16and21" "Between22and64" "Over65" );
	position = (927 -55);
	DSLxEXTRA_DEFINITIONxMANDATORY = "false";
	diagnosistype = "AUXILIARY";
	label = "Age";
	DSLxPOSITIONxWIDTH = "70";
	DSLxEXTRA_DEFINITIONxDIAGNOSIS_TYPE = "AUXILIARY";
	excludepolicy = "include whole CPT";
	DSLxTYPE = "CPT";
	DSLxPOSITIONxHEIGHT = "30";
	DSLxEXTRA_DEFINITIONxRANKED = "false";
	ismapvariable = "false";
	ID = "Age";
}
node DebtIncomeRatio
{
	states = ("Low" "High" );
	position = (240 -56);
	DSLxEXTRA_DEFINITIONxMANDATORY = "false";
	diagnosistype = "AUXILIARY";
	label = "Ratio of Debts To Income";
	DSLxPOSITIONxWIDTH = "81";
	DSLxEXTRA_DEFINITIONxDIAGNOSIS_TYPE = "AUXILIARY";
	excludepolicy = "include whole CPT";
	DSLxTYPE = "CPT";
	DSLxPOSITIONxHEIGHT = "30";
	DSLxEXTRA_DEFINITIONxRANKED = "false";
	ismapvariable = "false";
	ID = "RatioDebInc";
}
node CreditWorthiness
{
	states = ("Positive" "Negative" );
	position = (323 -548);
	DSLxEXTRA_DEFINITIONxMANDATORY = "false";
	diagnosistype = "AUXILIARY";
	label = "Credit Worthiness";
	DSLxPOSITIONxWIDTH = "100";
	DSLxEXTRA_DEFINITIONxDIAGNOSIS_TYPE = "AUXILIARY";
	excludepolicy = "include whole CPT";
	DSLxTYPE = "CPT";
	DSLxPOSITIONxHEIGHT = "30";
	DSLxEXTRA_DEFINITIONxRANKED = "false";
	ismapvariable = "false";
	ID = "CreditWorthiness";
}
node FutureIncome
{
	states = ("Promising" "Not_promising" );
	position = (61 -465);
	DSLxEXTRA_DEFINITIONxMANDATORY = "false";
	diagnosistype = "AUXILIARY";
	label = "Future Income";
	DSLxPOSITIONxWIDTH = "90";
	DSLxEXTRA_DEFINITIONxDIAGNOSIS_TYPE = "AUXILIARY";
	excludepolicy = "include whole CPT";
	DSLxTYPE = "CPT";
	DSLxPOSITIONxHEIGHT = "30";
	DSLxEXTRA_DEFINITIONxRANKED = "false";
	ismapvariable = "false";
	ID = "FutureIncome";
}
potential ( PaymentHistory | Age DebtIncomeRatio )
{
	data = (((	0.5	0.4	0.1	)
		(	0.45	0.4	0.15	))
		((	0.6	0.25	0.15	)
		(	0.5	0.3	0.2	))
		((	0.85	0.12	0.03	)
		(	0.8	0.15	0.05	)));
}
potential ( Reliability | PaymentHistory Age )
{
	data = (((	0.7	0.3	)
		(	0.8	0.2	)
		(	0.9	0.1	))
		((	0.5	0.5	)
		(	0.6	0.4	)
		(	0.65	0.35	))
		((	0.1	0.9	)
		(	0.3	0.7	)
		(	0.4	0.6	)));
}
potential ( Income | )
{
	data = (	0.2	0.3	0.5	);
}
potential ( Assets | Income )
{
	data = ((	0.6000000000000001	0.30000000000000004	0.10000000000000002	)
		(	0.3333333333333333	0.3333333333333333	0.3333333333333333	)
		(	0.2	0.3	0.5	));
}
potential ( Age | )
{
	data = (	0.3333333333333333	0.3333333333333333	0.3333333333333333	);
}
potential ( DebtIncomeRatio | )
{
	data = (	0.6	0.4	);
}
potential ( CreditWorthiness | Reliability FutureIncome DebtIncomeRatio )
{
	data = ((((	0.9	0.1	)
		(	0.75	0.25	))
		((	0.7	0.3	)
		(	0.5	0.5	)))
		(((	0.5	0.5	)
		(	0.4	0.6	))
		((	0.35	0.65	)
		(	0.2	0.8	))));
}
potential ( FutureIncome | Income Assets )
{
	data = (((	0.9	0.1	)
		(	0.73	0.27	)
		(	0.6	0.4	))
		((	0.7	0.3	)
		(	0.6	0.39999999999999997	)
		(	0.5	0.5	))
		((	0.45	0.55	)
		(	0.4	0.6	)
		(	0.3666666666666667	0.6333333333333333	)));
}
